/*
Copyright 2023 Siavash Barqi Janiar

   Licensed under the Apache License, Version 2.0 (the "License");
   you may not use this file except in compliance with the License.
   You may obtain a copy of the License at

     http://www.apache.org/licenses/LICENSE-2.0

   Unless required by applicable law or agreed to in writing, software
   distributed under the License is distributed on an "AS IS" BASIS,
   WITHOUT WARRANTIES OR CONDITIONS OF ANY KIND, either express or implied.
   See the License for the specific language governing permissions and
   limitations under the License.
*/

digraph Tree {
node [shape=box, style="filled, rounded", color="black", fontname="helvetica"] ;
edge [fontname="helvetica"] ;
0 [label="node #0\nCh. 1 Disrupted/Successful <= 0.5\ngini = 0.615\nsamples = 100.0%\nvalue = [0.525, 0.004, 0.291, 0.004, 0.005, 0.005, 0.157, 0.004\n0.006]", fillcolor="#f6d5be"] ;
1 [label="node #1\nCh. 3 Disrupted/Successful <= 0.5\ngini = 0.515\nsamples = 47.5%\nvalue = [0.0, 0.007, 0.612, 0.009, 0.009, 0.01, 0.331, 0.008\n0.013]", fillcolor="#bef4ac"] ;
0 -> 1 [labeldistance=2.5, labelangle=45, headlabel="True"] ;
2 [label="node #2\nCh. 7 Disrupted/Successful <= 0.5\ngini = 0.266\nsamples = 18.4%\nvalue = [0.0, 0.019, 0.0, 0.023, 0.024, 0.025, 0.855, 0.02\n0.034]", fillcolor="#9457e9"] ;
1 -> 2 ;
3 [label="node #3\nCh. 9 Disrupted/Successful <= 0.5\ngini = 0.826\nsamples = 2.7%\nvalue = [0.0, 0.131, 0.0, 0.159, 0.168, 0.173, 0.0, 0.136\n0.234]", fillcolor="#fdf0f4"] ;
2 -> 3 ;
4 [label="node #4\nCh. 6 Disrupted/Successful <= 0.5\ngini = 0.798\nsamples = 2.1%\nvalue = [0.0, 0.171, 0.0, 0.207, 0.22, 0.226, 0.0, 0.177, 0.0]", fillcolor="#fdfeff"] ;
3 -> 4 ;
5 [label="node #5\nCh. 5 Disrupted/Successful <= 0.5\ngini = 0.747\nsamples = 1.6%\nvalue = [0.0, 0.22, 0.0, 0.268, 0.283, 0.0, 0.0, 0.228, 0.0]", fillcolor="#fbfefe"] ;
4 -> 5 ;
6 [label="node #6\nCh. 4 Disrupted <= 0.5\ngini = 0.664\nsamples = 1.1%\nvalue = [0.0, 0.308, 0.0, 0.374, 0.0, 0.0, 0.0, 0.319, 0.0]", fillcolor="#effdf5"] ;
5 -> 6 ;
7 [label="node #7\nCh. 8 Disrupted/Successful <= 0.5\ngini = 0.5\nsamples = 0.7%\nvalue = [0.0, 0.491, 0.0, 0.0, 0.0, 0.0, 0.0, 0.509, 0.0]", fillcolor="#fef8fe"] ;
6 -> 7 ;
8 [label="node #8\ngini = 0.0\nsamples = 0.4%\nvalue = [0.0, 1.0, 0.0, 0.0, 0.0, 0.0, 0.0, 0.0, 0.0]", fillcolor="#d7e539"] ;
7 -> 8 ;
9 [label="node #9\ngini = 0.0\nsamples = 0.4%\nvalue = [0.0, 0.0, 0.0, 0.0, 0.0, 0.0, 0.0, 1.0, 0.0]", fillcolor="#e539d7"] ;
7 -> 9 ;
10 [label="node #10\ngini = 0.0\nsamples = 0.4%\nvalue = [0.0, 0.0, 0.0, 1.0, 0.0, 0.0, 0.0, 0.0, 0.0]", fillcolor="#39e581"] ;
6 -> 10 ;
11 [label="node #11\ngini = 0.0\nsamples = 0.5%\nvalue = [0.0, 0.0, 0.0, 0.0, 1.0, 0.0, 0.0, 0.0, 0.0]", fillcolor="#39d7e5"] ;
5 -> 11 ;
12 [label="node #12\ngini = 0.0\nsamples = 0.5%\nvalue = [0.0, 0.0, 0.0, 0.0, 0.0, 1.0, 0.0, 0.0, 0.0]", fillcolor="#3964e5"] ;
4 -> 12 ;
13 [label="node #13\ngini = 0.0\nsamples = 0.6%\nvalue = [0.0, 0.0, 0.0, 0.0, 0.0, 0.0, 0.0, 0.0, 1.0]", fillcolor="#e53964"] ;
3 -> 13 ;
14 [label="node #14\ngini = 0.0\nsamples = 15.7%\nvalue = [0.0, 0.0, 0.0, 0.0, 0.0, 0.0, 1.0, 0.0, 0.0]", fillcolor="#8139e5"] ;
2 -> 14 ;
15 [label="node #15\ngini = 0.0\nsamples = 29.1%\nvalue = [0.0, 0.0, 1.0, 0.0, 0.0, 0.0, 0.0, 0.0, 0.0]", fillcolor="#64e539"] ;
1 -> 15 ;
16 [label="node #16\ngini = 0.0\nsamples = 52.5%\nvalue = [1.0, 0.0, 0.0, 0.0, 0.0, 0.0, 0.0, 0.0, 0.0]", fillcolor="#e58139"] ;
0 -> 16 [labeldistance=2.5, labelangle=-45, headlabel="False"] ;
}