/*
Copyright 2023 Siavash Barqi Janiar

   Licensed under the Apache License, Version 2.0 (the "License");
   you may not use this file except in compliance with the License.
   You may obtain a copy of the License at

     http://www.apache.org/licenses/LICENSE-2.0

   Unless required by applicable law or agreed to in writing, software
   distributed under the License is distributed on an "AS IS" BASIS,
   WITHOUT WARRANTIES OR CONDITIONS OF ANY KIND, either express or implied.
   See the License for the specific language governing permissions and
   limitations under the License.
*/

digraph Tree {
node [shape=box, style="filled, rounded", color="black", fontname="helvetica"] ;
edge [fontname="helvetica"] ;
0 [label="node #0\nCh. 6 Disrupted/Successful <= 0.5\ngini = 0.616\nsamples = 100.0%\nvalue = [0.007, 0.013, 0.006, 0.013, 0.097, 0.5, 0.006, 0.007\n0.351]", fillcolor="#d2dcf9"] ;
1 [label="node #1\nCh. 9 Disrupted/Successful <= 0.5\ngini = 0.466\nsamples = 50.0%\nvalue = [0.014, 0.025, 0.012, 0.027, 0.195, 0.0, 0.012, 0.013\n0.703]", fillcolor="#ef829d"] ;
0 -> 1 [labeldistance=2.5, labelangle=45, headlabel="True"] ;
2 [label="node #2\nCh. 5 Disrupted/Successful <= 0.5\ngini = 0.548\nsamples = 14.9%\nvalue = [0.047, 0.085, 0.039, 0.089, 0.655, 0.0, 0.04, 0.044\n0.0]", fillcolor="#84e6ef"] ;
1 -> 2 ;
3 [label="node #3\nCh. 4 Disrupted/Successful <= 0.5\ngini = 0.811\nsamples = 5.1%\nvalue = [0.137, 0.247, 0.112, 0.259, 0.0, 0.0, 0.117, 0.127\n0.0]", fillcolor="#fcfffd"] ;
2 -> 3 ;
4 [label="node #4\nCh. 2 Disrupted/Successful <= 0.5\ngini = 0.777\nsamples = 3.8%\nvalue = [0.185, 0.333, 0.152, 0.0, 0.0, 0.0, 0.158, 0.172, 0.0]", fillcolor="#f8fadb"] ;
3 -> 4 ;
5 [label="node #5\nCh. 1 Disrupted/Successful <= 0.5\ngini = 0.749\nsamples = 2.5%\nvalue = [0.277, 0.0, 0.228, 0.0, 0.0, 0.0, 0.238, 0.257, 0.0]", fillcolor="#fefcfa"] ;
4 -> 5 ;
6 [label="node #6\nCh. 8 Disrupted/Successful <= 0.5\ngini = 0.666\nsamples = 1.8%\nvalue = [0.0, 0.0, 0.315, 0.0, 0.0, 0.0, 0.329, 0.356, 0.0]", fillcolor="#fef7fd"] ;
5 -> 6 ;
7 [label="node #7\nCh. 3 Disrupted/Successful <= 0.5\ngini = 0.5\nsamples = 1.2%\nvalue = [0.0, 0.0, 0.489, 0.0, 0.0, 0.0, 0.511, 0.0, 0.0]", fillcolor="#faf7fe"] ;
6 -> 7 ;
8 [label="node #8\ngini = 0.0\nsamples = 0.6%\nvalue = [0.0, 0.0, 0.0, 0.0, 0.0, 0.0, 1.0, 0.0, 0.0]", fillcolor="#8139e5"] ;
7 -> 8 ;
9 [label="node #9\ngini = 0.0\nsamples = 0.6%\nvalue = [0.0, 0.0, 1.0, 0.0, 0.0, 0.0, 0.0, 0.0, 0.0]", fillcolor="#64e539"] ;
7 -> 9 ;
10 [label="node #10\ngini = 0.0\nsamples = 0.7%\nvalue = [0.0, 0.0, 0.0, 0.0, 0.0, 0.0, 0.0, 1.0, 0.0]", fillcolor="#e539d7"] ;
6 -> 10 ;
11 [label="node #11\ngini = 0.0\nsamples = 0.7%\nvalue = [1.0, 0.0, 0.0, 0.0, 0.0, 0.0, 0.0, 0.0, 0.0]", fillcolor="#e58139"] ;
5 -> 11 ;
12 [label="node #12\ngini = 0.0\nsamples = 1.3%\nvalue = [0.0, 1.0, 0.0, 0.0, 0.0, 0.0, 0.0, 0.0, 0.0]", fillcolor="#d7e539"] ;
4 -> 12 ;
13 [label="node #13\ngini = 0.0\nsamples = 1.3%\nvalue = [0.0, 0.0, 0.0, 1.0, 0.0, 0.0, 0.0, 0.0, 0.0]", fillcolor="#39e581"] ;
3 -> 13 ;
14 [label="node #14\ngini = 0.0\nsamples = 9.7%\nvalue = [0.0, 0.0, 0.0, 0.0, 1.0, 0.0, 0.0, 0.0, 0.0]", fillcolor="#39d7e5"] ;
2 -> 14 ;
15 [label="node #15\ngini = 0.0\nsamples = 35.1%\nvalue = [0.0, 0.0, 0.0, 0.0, 0.0, 0.0, 0.0, 0.0, 1.0]", fillcolor="#e53964"] ;
1 -> 15 ;
16 [label="node #16\ngini = 0.0\nsamples = 50.0%\nvalue = [0.0, 0.0, 0.0, 0.0, 0.0, 1.0, 0.0, 0.0, 0.0]", fillcolor="#3964e5"] ;
0 -> 16 [labeldistance=2.5, labelangle=-45, headlabel="False"] ;
}